digraph Tree {
node [shape=box] ;
0 [label="CA2-1 <= 0.7625\nmse = 305.9764\nsamples = 61\nvalue = 53.3934"] ;
1 [label="CA3-2 <= 0.3\nmse = 188.845\nsamples = 22\nvalue = 38.8636"] ;
0 -> 1 [labeldistance=2.5, labelangle=45, headlabel="True"] ;
2 [label="mse = 136.2222\nsamples = 3\nvalue = 12.3333"] ;
1 -> 2 ;
3 [label="CA3-3 <= 0.625\nmse = 68.4709\nsamples = 19\nvalue = 43.0526"] ;
1 -> 3 ;
4 [label="CA2-2 <= 0.55\nmse = 13.8182\nsamples = 11\nvalue = 39.0"] ;
3 -> 4 ;
5 [label="mse = 7.1875\nsamples = 4\nvalue = 36.25"] ;
4 -> 5 ;
6 [label="Factor1 <= 0.375\nmse = 10.8163\nsamples = 7\nvalue = 40.5714"] ;
4 -> 6 ;
7 [label="mse = 0.8889\nsamples = 3\nvalue = 37.3333"] ;
6 -> 7 ;
8 [label="mse = 4.5\nsamples = 4\nvalue = 43.0"] ;
6 -> 8 ;
9 [label="CA3-2 <= 0.9167\nmse = 89.9844\nsamples = 8\nvalue = 48.625"] ;
3 -> 9 ;
10 [label="mse = 21.04\nsamples = 5\nvalue = 42.6"] ;
9 -> 10 ;
11 [label="mse = 43.5556\nsamples = 3\nvalue = 58.6667"] ;
9 -> 11 ;
12 [label="CA3-2 <= 0.8167\nmse = 185.7804\nsamples = 39\nvalue = 61.5897"] ;
0 -> 12 [labeldistance=2.5, labelangle=-45, headlabel="False"] ;
13 [label="CA3-3 <= 0.55\nmse = 57.5208\nsamples = 12\nvalue = 48.75"] ;
12 -> 13 ;
14 [label="mse = 62.75\nsamples = 4\nvalue = 42.5"] ;
13 -> 14 ;
15 [label="CA3-3 <= 0.725\nmse = 25.6094\nsamples = 8\nvalue = 51.875"] ;
13 -> 15 ;
16 [label="mse = 21.5\nsamples = 4\nvalue = 49.0"] ;
15 -> 16 ;
17 [label="mse = 13.1875\nsamples = 4\nvalue = 54.75"] ;
15 -> 17 ;
18 [label="CA2-2 <= 0.75\nmse = 136.9492\nsamples = 27\nvalue = 67.2963"] ;
12 -> 18 ;
19 [label="CA4 <= 0.765\nmse = 44.1875\nsamples = 8\nvalue = 55.75"] ;
18 -> 19 ;
20 [label="mse = 20.0\nsamples = 4\nvalue = 59.0"] ;
19 -> 20 ;
21 [label="mse = 47.25\nsamples = 4\nvalue = 52.5"] ;
19 -> 21 ;
22 [label="CA3-3 <= 0.9\nmse = 96.2382\nsamples = 19\nvalue = 72.1579"] ;
18 -> 22 ;
23 [label="CA2-1 <= 0.9125\nmse = 89.2041\nsamples = 14\nvalue = 69.7143"] ;
22 -> 23 ;
24 [label="mse = 58.4844\nsamples = 8\nvalue = 65.375"] ;
23 -> 24 ;
25 [label="mse = 71.5833\nsamples = 6\nvalue = 75.5"] ;
23 -> 25 ;
26 [label="mse = 52.4\nsamples = 5\nvalue = 79.0"] ;
22 -> 26 ;
}